svm_type c_svc
kernel_type rbf
gamma 0.0769231
nr_class 8
total_sv 230
rho 0.0402048 0.240553 -0.0371847 -0.13622 0.215626 -0.0196476 0.0200706 0.324395 -0.0277326 0.184969 0.470193 0.215641 0.0318317 -0.394516 -0.221346 0.476632 -0.202777 -0.319867 0.0191893 0.406173 0.254776 0.21987 0.34424 0.0529088 0.0475313 -0.6353 -0.520958 -0.151639
label 1 2 3 4 5 6 7 8
nr_sv 19 39 24 15 29 25 43 36
SV
0 0 0 0 0 0 0.7955315650290393 1:3.05458 2:2.81851 3:2.791 4:2.80899 5:2.76042 6:2.47989 7:2.50082 8:2.03454 9:1.9806 10:1.70052 11:1.60372 12:2.55284 13:2.33598 
0 1 0 0 0.1128828819566528 0 0.9339734741601822 1:3.00671 2:2.73446 3:2.77142 4:2.89579 5:2.81082 6:2.4532 7:2.4889 8:2.05617 9:2.043 10:1.74482 11:1.62213 12:2.52056 13:2.32655 
0 0.09499351252595739 0 0 0 0.953839889829073 1 1:3.06102 2:2.7606 3:2.79605 4:2.8534 5:2.81653 6:2.44687 7:2.47575 8:2.0403 9:2.03875 10:1.71421 11:1.6179 12:2.50794 13:2.32891 
0 0 0 1 0 0 0 1:2.85558 2:2.68012 3:2.77 4:2.65635 5:2.79809 6:2.56649 7:2.51953 8:2.01186 9:1.95403 10:1.74684 11:1.67098 12:2.62152 13:2.40962 
1 0.516944866592679 0 1 1 0 0 1:2.83454 2:2.63175 3:2.6675 4:2.66516 5:2.81982 6:2.52637 7:2.50576 8:1.92681 9:1.95986 10:1.72834 11:1.72016 12:2.60678 13:2.468 
0 0 0 0 0 0 0.2209848358078074 1:2.85164 2:2.7245 3:2.79437 4:2.81325 5:2.77659 6:2.51364 7:2.35535 8:2.17432 9:1.88419 10:1.68058 11:1.69813 12:2.66814 13:2.36944 
0.9635060315609156 0 0 1 0 0 0 1:2.85085 2:2.71365 3:2.81828 4:2.70779 5:2.90275 6:2.4939 7:2.54985 8:1.98322 9:1.95363 10:1.64639 11:1.62452 12:2.59238 13:2.44984 
0 0 0 0.5539951839129515 0 0 0 1:2.89581 2:2.74573 3:2.81345 4:2.76423 5:2.90809 6:2.50924 7:2.53755 8:1.94654 9:2.01843 10:1.60396 11:1.65998 12:2.6207 13:2.50412 
1 0 0 0 1 0.4955113869409078 0 1:2.85201 2:2.70849 3:2.81667 4:2.9615 5:2.92367 6:2.53199 7:2.51889 8:2.03766 9:2.53315 10:1.65746 11:1.63468 12:2.62814 13:2.39629 
0 0 0 1 0 0 0 1:2.78641 2:2.64057 3:2.73768 4:2.70289 5:2.92689 6:2.48843 7:2.48421 8:1.87069 9:1.97473 10:1.66253 11:1.70955 12:2.62428 13:2.39254 
0 0.07595896091015128 0 0 0 0 0 1:2.93567 2:2.7836 3:2.8874 4:2.8153 5:2.79733 6:2.37423 7:2.34519 8:1.37596 9:1.40703 10:1.57623 11:1.68315 12:2.7046 13:2.46817 
0 0 0 0 0.3789533523456017 0 0 1:2.97735 2:2.57109 3:2.62142 4:2.99388 5:2.94066 6:2.38319 7:2.20212 8:2.14933 9:1.75462 10:1.77237 11:1.90677 12:2.66689 13:2.31777 
0 0 1 0 0 0 0 1:2.9096 2:2.80309 3:2.85602 4:2.7398 5:2.73462 6:2.52334 7:2.35562 8:1.77389 9:2.39075 10:1.6503 11:1.63947 12:2.7113 13:2.35448 
0 0 0.1887937405147254 0 0 0 0 1:2.86756 2:2.79762 3:2.84163 4:2.77248 5:2.74234 6:2.50882 7:2.36289 8:1.79488 9:2.36078 10:1.64118 11:1.65337 12:2.70655 13:2.36885 
0.8476077410642293 0 0 0 0 0.9427988010565139 0 1:2.90113 2:2.75197 3:2.75635 4:2.76004 5:2.86804 6:2.56265 7:2.35647 8:1.87905 9:2.38559 10:1.6751 11:1.69461 12:2.65256 13:2.32296 
0 0 0 0.8889154423682373 0 0 0 1:2.90207 2:2.80857 3:2.75398 4:2.70215 5:2.81918 6:2.53622 7:2.38481 8:1.72788 9:2.34444 10:1.61341 11:1.6963 12:2.6609 13:2.34429 
0 0.0335545322038837 0 0.8129228487151616 0 0 0 1:2.89396 2:2.8306 3:2.78447 4:2.65522 5:2.80452 6:2.47436 7:2.29413 8:1.56921 9:2.31072 10:1.55518 11:1.65598 12:2.70704 13:2.43621 
0 0 0 1 0 0 0 1:2.92749 2:2.78226 3:2.77412 4:2.70439 5:2.78196 6:2.59015 7:2.42606 8:1.88254 9:1.75881 10:1.54929 11:1.66612 12:2.5709 13:2.41021 
1 0.5293995978351562 0.9898732841756066 1 1 1 1 1:2.89601 2:2.71889 3:2.71218 4:2.80656 5:2.85221 6:2.5791 7:2.3196 8:2.37587 9:1.70049 10:1.59665 11:1.73346 12:2.59307 13:2.32903 
-1 0 0 1 0 0 0 1:2.73608 2:2.60062 3:2.35613 4:1.77648 5:2.76557 6:2.48922 7:2.47445 8:2.77323 9:2.38688 10:0.856042 11:1.92936 12:1.80038 13:2.54688 
-0 0 0 1 0 0 0 1:2.75782 2:2.61681 3:2.31216 4:1.75273 5:2.76323 6:2.44492 7:2.44664 8:2.73313 9:2.40329 10:0.853195 11:1.98545 12:1.75966 13:2.4758 
-0 0 0 1 0 0 0 1:2.76117 2:2.60773 3:2.27961 4:1.805 5:2.83685 6:2.4341 7:2.47028 8:2.71511 9:2.39833 10:0.864963 11:1.96498 12:1.75318 13:2.47344 
-0 0 0 1 0 0 0 1:2.75291 2:2.63032 3:2.27406 4:1.76133 5:2.88509 6:2.40442 7:2.45934 8:2.7045 9:2.47849 10:0.854793 11:1.98811 12:1.72657 13:2.42788 
-0 0 0 1 0 0 0 1:2.77527 2:2.62611 3:2.34072 4:1.79715 5:2.73513 6:2.41392 7:2.48283 8:2.66168 9:2.37005 10:0.80517 11:1.89889 12:1.72255 13:2.45275 
-0 0 0 1 0 0 0 1:2.78241 2:2.66355 3:2.32017 4:1.87849 5:2.80039 6:2.42335 7:2.49723 8:2.67565 9:2.48142 10:0.790329 11:1.86935 12:1.73205 13:2.46838 
-0 0 0 1 0 0 0 1:2.76993 2:2.64376 3:2.32221 4:1.8097 5:2.76898 6:2.4264 7:2.62464 8:2.68088 9:2.53628 10:0.840578 11:1.84197 12:1.73712 13:2.48914 
-1 0 0 1 0 0 0 1:2.76394 2:2.63782 3:2.36345 4:1.91705 5:2.81046 6:2.45586 7:2.64382 8:2.6726 9:2.49566 10:0.779984 11:1.84771 12:1.75668 13:2.5273 
-0 0 0 1 0 0 0 1:2.82941 2:2.62967 3:2.29198 4:1.79014 5:2.81915 6:2.41973 7:2.57607 8:2.69389 9:2.51793 10:0.792656 11:1.92712 12:1.74023 13:2.47444 
-0 0 0 1 0 0 0 1:2.78826 2:2.6515 3:2.33199 4:1.80482 5:2.86481 6:2.3801 7:2.57435 8:2.66481 9:2.54265 10:0.766791 11:1.88087 12:1.69844 13:2.44703 
-0 0.3250133584835756 0 0.9793821096238333 1 0 0.910871159861035 1:2.6701 2:2.4162 3:2.22029 4:1.51962 5:2.805 6:2.3134 7:2.40774 8:2.7315 9:2.44234 10:0.971958 11:1.89911 12:1.64649 13:2.15665 
-0 0 0 1 1 0 0 1:2.74504 2:2.49224 3:2.30604 4:1.73624 5:2.66493 6:2.37078 7:2.53339 8:2.70515 9:2.46383 10:0.926767 11:1.83036 12:1.727 13:2.34564 
-0 0 0 1 0 0 0 1:2.71935 2:2.67709 3:2.26595 4:1.66506 5:2.74367 6:2.37677 7:2.66528 8:2.76757 9:2.36735 10:0.892156 11:1.83696 12:1.69257 13:2.44779 
-0 0 0 0 0 1 0 1:2.70666 2:2.68851 3:2.15413 4:1.83202 5:2.78733 6:2.25923 7:2.34661 8:2.86996 9:2.50051 10:0.781164 11:1.97182 12:1.53832 13:2.10398 
-0 0 0 0 0 1 0 1:2.74087 2:2.68167 3:2.16576 4:1.86795 5:2.7672 6:2.15718 7:2.28278 8:2.88116 9:2.45872 10:0.716528 11:2.01026 12:1.50549 13:2.0208 
-0 0 0 0.4190536902854611 0 0 0 1:2.72669 2:2.6107 3:2.23422 4:1.80138 5:2.88188 6:2.38691 7:2.6395 8:2.68763 9:2.44287 10:0.928708 11:1.90135 12:1.6874 13:2.60376 
-0 0 0 0 1 0 0 1:2.65359 2:2.54682 3:2.19551 4:1.72778 5:2.93073 6:2.2264 7:2.41118 8:2.73459 9:2.56137 10:0.885288 11:1.86905 12:1.6294 13:2.14656 
-0 1 0 0 0 1 1 1:2.59044 2:2.58987 3:2.37841 4:1.81769 5:2.63936 6:2.20956 7:2.42945 8:2.76642 9:2.42079 10:0.84787 11:1.77555 12:1.63259 13:2.12006 
-0 0 0 1 0.7023983229328152 0 0 1:2.68736 2:2.56068 3:2.22863 4:1.34969 5:2.58274 6:2.41767 7:2.26817 8:3.05965 9:2.20918 10:0.937182 11:2.10344 12:1.82445 13:2.35681 
-0 0 0 0 0 0 1 1:2.63521 2:2.53946 3:2.3755 4:1.81341 5:2.51305 6:2.33465 7:2.38722 8:2.69082 9:2.55322 10:0.82767 11:1.95883 12:1.64982 13:2.13172 
-0 0.5318438398089633 0 0 0 0 0 1:2.66672 2:2.55528 3:2.25575 4:1.80454 5:2.72444 6:2.25142 7:2.25827 8:2.64755 9:2.44887 10:0.829733 11:1.97724 12:1.55161 13:2.14678 
-0.8143378701127024 0 0 0 0 0 0 1:2.63779 2:2.56357 3:2.22254 4:1.77139 5:2.75756 6:2.32945 7:2.15782 8:2.57922 9:2.24167 10:0.825138 11:2.02488 12:1.65016 13:2.24258 
-0 0 0 0 0.7029566990530515 0 0 1:2.6094 2:2.59183 3:2.16419 4:1.83485 5:2.95853 6:2.26077 7:2.24999 8:2.52263 9:2.47621 10:0.800446 11:1.90281 12:1.59574 13:2.07662 
-0 0 1 0 0.09905569334887791 1 1 1:2.82428 2:2.61569 3:2.3067 4:1.79528 5:2.59007 6:2.31056 7:2.46629 8:2.8815 9:2.55499 10:0.844868 11:1.9012 12:1.72893 13:1.95182 
-0 0 1 0 0 1 0 1:2.77129 2:2.64077 3:2.27878 4:1.88661 5:2.58557 6:2.33333 7:2.41248 8:2.87086 9:2.74688 10:0.770361 11:1.93938 12:1.70526 13:1.92187 
-0 0 0 0 0 1 1 1:2.72715 2:2.63602 3:2.28275 4:1.86376 5:2.63665 6:2.30164 7:2.39773 8:2.80544 9:2.59076 10:0.777384 11:1.94162 12:1.6841 13:1.88616 
-0 0 0 0 0 1 1 1:2.68903 2:2.63223 3:2.30274 4:1.82731 5:2.64056 6:2.32983 7:2.43736 8:2.83319 9:2.63279 10:0.825146 11:1.91071 12:1.70343 13:1.9137 
-0 0 1 0 0 1 0 1:2.72185 2:2.63725 3:2.3203 4:1.82792 5:2.60698 6:2.35042 7:2.47297 8:2.87499 9:2.68587 10:0.820328 11:1.91404 12:1.74589 13:1.95056 
-0 0 0 0 0 1 0 1:2.72331 2:2.6389 3:2.25432 4:1.8581 5:2.6292 6:2.3596 7:2.43538 8:2.82968 9:2.60602 10:0.793896 11:1.99203 12:1.74832 13:1.92308 
-0 0 0 0 0 1 0 1:2.70987 2:2.66896 3:2.26529 4:1.888 5:2.60228 6:2.33187 7:2.43401 8:2.72729 9:2.6968 10:0.748013 11:2.048 12:1.70265 13:1.91399 
-0 0 0 0 0 0.891459731881976 0 1:2.74193 2:2.61131 3:2.2751 4:1.80487 5:2.66029 6:2.3318 7:2.44398 8:2.69928 9:2.67714 10:0.772176 11:2.07779 12:1.70297 13:1.93223 
-0 0 0 0 0 1 0 1:2.78945 2:2.61835 3:2.29672 4:1.80589 5:2.65987 6:2.37671 7:2.44469 8:2.78423 9:2.68379 10:0.791788 11:2.03996 12:1.76031 13:1.94911 
-0 0 0 0 0 1 0 1:2.81337 2:2.61941 3:2.23148 4:1.79682 5:2.64437 6:2.38085 7:2.42249 8:2.80963 9:2.70383 10:0.788466 11:2.04348 12:1.76049 13:1.90844 
-0 0 0 0 0 1 0 1:2.80714 2:2.59989 3:2.24273 4:1.81313 5:2.71949 6:2.38287 7:2.44826 8:2.70383 9:2.70941 10:0.787873 11:2.0287 12:1.75633 13:1.92745 
-0 1 1 0 0.6541082422971063 0 0 1:2.56301 2:2.60939 3:2.37662 4:2.05914 5:2.25645 6:2.35555 7:2.91461 8:2.6761 9:2.68762 10:0.887044 11:1.80593 12:1.68007 13:2.51363 
-0.2709936362839051 0.04806741788723493 0 0 0 0 0 1:2.58336 2:2.60588 3:2.38975 4:2.09067 5:2.41522 6:2.36599 7:2.99176 8:2.61934 9:2.68281 10:0.867256 11:1.79905 12:1.68405 13:2.37489 
-1 0 0 0 0 0 0 1:2.57243 2:2.64011 3:2.31913 4:2.19923 5:2.71924 6:2.41216 7:3.03783 8:2.70152 9:2.72371 10:0.850355 11:1.83587 12:1.73169 13:2.48 
-0 1 0.5698015542352164 0 0 1 0 1:2.57751 2:2.61177 3:2.26576 4:2.14698 5:2.47377 6:2.28683 7:2.88866 8:2.73107 9:2.76144 10:0.798968 11:1.84682 12:1.63894 13:2.08907 
-0.7257822662285375 0 0 0 0 0.4633906236263353 0 1:2.56552 2:2.61735 3:2.28598 4:2.36433 5:2.77786 6:2.27446 7:2.73517 8:2.69037 9:2.79855 10:0.791058 11:1.93515 12:1.60592 13:1.98784 
-0 -0 0 0 0 0 1 1:2.88572 2:1.55551 3:2.0463 4:2.01327 5:1.05046 6:1.68316 7:2.4032 8:2.38442 9:2.68342 10:0.851265 11:0.358545 12:0.84514 13:1.80387 
-0 -0 0 0 0 0 0.5096610036186345 1:2.93368 2:1.39647 3:2.2181 4:2.1909 5:1.0563 6:1.54586 7:2.30909 8:2.38918 9:1.7211 10:0.990009 11:0.475942 12:0.85263 13:1.79363 
-0 -0 0 0 0 0 0.8751102039207 1:2.8065 2:1.41833 3:2.39098 4:2.19314 5:1.10307 6:1.57577 7:2.31725 8:2.04047 9:1.01765 10:0.920832 11:0.419501 12:0.781271 13:1.7273 
-0 -0 0 0 0.03675542949508347 0 0 1:2.68982 2:1.49553 3:2.26465 4:2.21956 5:1.2123 6:1.63575 7:2.32554 8:2.01953 9:0.534817 10:0.844835 11:0.321556 12:0.82787 13:1.73129 
-0.1655316594822839 -0 0 0 1 0 0.3729986367216211 1:2.65451 2:1.58078 3:1.81286 4:2.25069 5:1.51251 6:1.77851 7:2.39724 8:2.16755 9:0.896612 10:0.917497 11:0.671977 12:0.914175 13:1.77667 
-0.3446266407533206 -0.2324765135710251 0 0.2527880414060618 0 0 0.7326441191553404 1:2.43899 2:1.75722 3:2.7537 4:2.1167 5:1.32799 6:1.17241 7:2.83761 8:2.30116 9:1.40844 10:1.08455 11:0.568066 12:0.686736 13:2.33462 
-0.4990536106627919 -1 1 0.8478606529415291 1 1 1 1:2.52932 2:1.74335 3:2.09008 4:1.86154 5:0.566937 6:2.13208 7:2.72776 8:2.51207 9:1.18315 10:0.756991 11:1.09058 12:1.32264 13:1.76756 
-0.1661363735951177 -0.1356384344954944 0.5390502961158146 0.120102543875242 0.7523590681513166 0.507130707238354 0.2355351786105273 1:2.5115 2:1.71117 3:2.0868 4:1.92853 5:0.521277 6:2.30672 7:2.86197 8:2.60088 9:0.854937 10:0.789274 11:1.05722 12:1.08395 13:2.13995 
-0 -0.1145278044221815 1 0 0.7443037366662208 1 1 1:2.69986 2:1.84477 3:1.45279 4:2.07653 5:1.93796 6:1.59473 7:2.33171 8:2.43715 9:2.91265 10:0.674171 11:0.610746 12:0.871301 13:1.84763 
-0 -0 0 0 0 1 0 1:2.72076 2:1.82726 3:1.43513 4:1.94771 5:1.92552 6:1.48023 7:2.46482 8:2.36459 9:2.93734 10:0.76058 11:0.617152 12:0.847925 13:2.01887 
-0 -1 0 0 1 1 0.3754028306373232 1:2.73107 2:1.82824 3:1.38892 4:1.9367 5:1.95485 6:1.53248 7:2.44294 8:2.42702 9:2.95148 10:0.802088 11:0.656262 12:0.850261 13:2.01612 
-0 -0 0 0 0.7882114359734037 0 0 1:2.78102 2:1.76545 3:1.42012 4:2.02164 5:1.94585 6:1.44849 7:2.39473 8:2.26311 9:2.92046 10:0.949076 11:0.778654 12:0.833199 13:1.90045 
-0.07550318557431368 -0 0 0 0 0 0 1:2.74656 2:1.74186 3:1.35465 4:2.13465 5:2.05315 6:1.2303 7:2.35949 8:1.84299 9:2.9618 10:1.02815 11:0.79496 12:0.838811 13:1.90141 
-1 -0.1650617470814575 0 0 0 0.9590904939308441 0 1:2.7561 2:1.76173 3:1.38244 4:2.74527 5:2.02669 6:1.47026 7:2.42782 8:2.29999 9:2.92949 10:0.935675 11:0.753179 12:0.834957 13:2.00213 
-0 -0 0 0 1 0 0 1:2.81224 2:1.74601 3:1.39017 4:2.09953 5:1.98373 6:1.43052 7:2.4593 8:2.33874 9:2.92028 10:0.962092 11:0.745686 12:0.801127 13:2.05348 
-0 -0 0 0 1 0 0 1:2.76357 2:1.75319 3:1.37029 4:2.11664 5:1.99165 6:1.5392 7:2.42664 8:2.38038 9:2.94504 10:0.890731 11:0.711413 12:0.827165 13:2.00402 
-0 -0.2572201166096152 0 0.3426985389680007 1 0 0 1:2.72237 2:1.74741 3:1.37243 4:2.07236 5:2.00999 6:1.57485 7:2.41742 8:2.28239 9:2.9444 10:0.848683 11:0.693538 12:0.867339 13:2.00507 
-0 -0 0 0 1 0 0 1:2.76424 2:1.74135 3:1.36595 4:2.10854 5:2.01388 6:1.53861 7:2.45921 8:2.31814 9:2.92584 10:0.889604 11:0.721791 12:0.827417 13:2.06627 
-0 -1 0 1 1 0 0 1:2.75398 2:1.72767 3:1.35404 4:2.16011 5:2.05195 6:1.5418 7:2.43539 8:2.30351 9:2.96716 10:0.905676 11:0.746925 12:0.854419 13:2.00196 
-0 -0 0 0 0.888870375121717 0 0 1:2.75646 2:1.67959 3:1.36326 4:2.10339 5:2.01215 6:1.55543 7:2.44442 8:2.07161 9:2.9162 10:0.90295 11:0.742646 12:0.832627 13:2.01797 
-0 -0 0.964771198143439 0 0 0 0 1:2.71625 2:1.8442 3:2.22424 4:1.92752 5:1.2317 6:1.42239 7:2.65363 8:2.20586 9:2.92444 10:0.635542 11:0.526776 12:0.669389 13:2.28562 
-0 -0 1 0 0 0 0 1:2.78594 2:1.72677 3:1.87608 4:1.98094 5:1.0993 6:1.57836 7:2.20013 8:2.40799 9:2.8699 10:0.781367 11:0.240475 12:0.856273 13:1.58136 
-0 -0 0.01554366247643177 0 0 0 0 1:2.78337 2:1.80706 3:1.87231 4:1.97654 5:1.08976 6:1.46617 7:2.27366 8:2.3371 9:2.85607 10:0.70759 11:0.245066 12:0.751586 13:1.69327 
-0 -0 0 0 0 1 0 1:2.83088 2:1.79859 3:1.63498 4:2.45348 5:1.57674 6:1.52786 7:2.25302 8:2.35424 9:2.881 10:0.746015 11:0.446115 12:0.793412 13:1.65013 
-0 -0 -0 0 0.3610564193898428 0 0 1:2.79853 2:2.94136 3:2.50354 4:1.32824 5:0.899034 6:2.30408 7:2.26908 8:2.89042 9:2.81176 10:0.796403 11:1.24826 12:1.51139 13:1.53616 
-0 -0 -0 0 0 1 1 1:2.77942 2:2.9664 3:2.55049 4:1.80258 5:1.01697 6:2.36291 7:2.3116 8:2.92183 9:2.78881 10:0.779118 11:1.08225 12:1.57869 13:1.58629 
-0 -0 -1 0 1 1 1 1:2.78327 2:2.86879 3:2.50528 4:1.79973 5:0.990833 6:2.38548 7:2.3086 8:2.78907 9:2.83587 10:0.762203 11:1.07307 12:1.59299 13:1.56517 
-0 -0 -0.5193651567356854 0 0.5529992655211118 1 1 1:2.77154 2:2.92652 3:2.51149 4:1.76229 5:1.02384 6:2.37942 7:2.31112 8:2.93231 9:2.79482 10:0.765318 11:1.13165 12:1.58523 13:1.57701 
-0 -0 -0 0 0 0.2982290461426474 0 1:2.79635 2:2.97374 3:2.49034 4:1.77653 5:1.00294 6:2.37787 7:2.31582 8:2.95174 9:2.84145 10:0.786305 11:1.10399 12:1.57924 13:1.57861 
-0.178667024690332 -0 -0 0 0 1 0.2520187630200291 1:2.82629 2:2.91641 3:2.61538 4:1.90837 5:1.01284 6:2.37708 7:2.2994 8:2.97702 9:2.81801 10:0.718588 11:1.17004 12:1.58924 13:1.57409 
-0 -0.1441390659690135 -1 0 0 1 0.4205139828849672 1:2.7748 2:2.92545 3:2.52467 4:1.90214 5:1.05729 6:2.36644 7:2.29879 8:2.95912 9:2.8332 10:0.727453 11:1.08795 12:1.57352 13:1.57551 
-0 -0 -1 0 0 1 0 1:2.77818 2:2.94139 3:2.51039 4:1.88334 5:1.04282 6:2.36971 7:2.29902 8:2.92066 9:2.83234 10:0.72299 11:1.10085 12:1.57811 13:1.57504 
-0 -0 -0 0 0 1 0 1:2.73303 2:2.94598 3:2.51159 4:1.74852 5:1.08113 6:2.37443 7:2.29171 8:2.93444 9:2.98773 10:0.717894 11:1.09786 12:1.58769 13:1.5693 
-0 -1 -0 0.5005380861489684 0 1 0 1:2.76548 2:2.94537 3:2.52492 4:1.84076 5:1.09567 6:2.38267 7:2.29607 8:2.92616 9:2.94248 10:0.724491 11:1.10146 12:1.59233 13:1.57191 
-1 -1 -0 1 0 1 1 1:2.76671 2:2.99245 3:2.57572 4:1.79898 5:1.08917 6:2.36774 7:2.30394 8:2.92315 9:2.78441 10:0.751187 11:1.12212 12:1.58414 13:1.58447 
-1 -1 -0 1 0 1 1 1:2.78903 2:2.92687 3:2.55678 4:1.86158 5:1.09626 6:2.37359 7:2.29795 8:2.95227 9:2.84816 10:0.710865 11:1.11109 12:1.58733 13:1.57778 
-0 -1 -1 0.2749402297006077 1 0 0 1:2.79273 2:2.70866 3:2.31236 4:1.62305 5:0.909197 6:2.39779 7:2.34947 8:3.02069 9:3.00554 10:0.666396 11:1.42301 12:1.58068 13:1.59259 
-0 -0 -0 0 0.9830448439800439 0 0 1:2.76809 2:2.71903 3:2.3351 4:1.31953 5:0.62446 6:2.39173 7:2.3499 8:3.01335 9:3.02672 10:0.641781 11:1.69311 12:1.58743 13:1.6105 
-0 -0.425662488266203 -0 0 0 0 0 1:2.77521 2:2.75952 3:2.3942 4:1.65085 5:0.860277 6:2.39473 7:2.33739 8:3.01521 9:3.01016 10:0.687956 11:1.50927 12:1.57744 13:1.58688 
-0 -0 -0 -0 0 0 1 1:2.81109 2:2.41359 3:2.73218 4:1.39647 5:2.91555 6:2.79188 7:2.54126 8:2.48059 9:2.47181 10:0.898361 11:1.74307 12:2.42399 13:2.32743 
-0 -0 -0 -0 0 0 0.0480207367263337 1:2.837 2:2.42593 3:2.69605 4:1.34166 5:2.93192 6:2.80755 7:2.52116 8:2.49406 9:2.51318 10:0.905776 11:1.75247 12:2.44498 13:2.28799 
-0 -1 -0 -0 0 0.926454541764668 0 1:2.81177 2:2.47873 3:2.66814 4:1.36579 5:2.9429 6:2.84612 7:2.48675 8:2.49806 9:2.43247 10:0.905097 11:1.80059 12:2.41355 13:2.31484 
-0 -1 -0 -0 0 1 0 1:2.8233 2:2.47251 3:2.64105 4:1.35842 5:2.9676 6:2.84894 7:2.47744 8:2.523 9:2.43916 10:0.925432 11:1.81325 12:2.35995 13:2.34368 
-0 -0 -0 -0 0 0 1 1:2.80522 2:2.42888 3:2.64184 4:1.29927 5:2.87903 6:2.902 7:2.43818 8:2.51213 9:2.32948 10:0.946833 11:1.82882 12:2.42481 13:2.29523 
-0 -0.09843202681412441 -0 -0.1075791478118591 0 0 0 1:2.79154 2:2.4579 3:2.59065 4:1.29311 5:2.9106 6:2.91302 7:2.73508 8:2.39878 9:2.97702 10:0.944418 11:1.85893 12:2.45833 13:2.28171 
-0 -1 -0 -0 0 0 0 1:2.81569 2:2.49939 3:2.6308 4:1.51851 5:2.93899 6:2.89013 7:2.65796 8:2.48512 9:2.77655 10:0.974655 11:1.80954 12:2.43713 13:2.30285 
-0 -1 -0 -1 0.3692687906338415 1 0 1:2.83298 2:2.44959 3:2.66127 4:1.65248 5:2.9474 6:2.87556 7:2.67965 8:2.60613 9:2.81044 10:0.966696 11:1.77387 12:2.33497 13:2.33128 
-0 -1 -0 -0 0.1606572700335659 0 0 1:2.84089 2:2.32194 3:2.64302 4:1.53533 5:2.93709 6:2.84949 7:2.70228 8:2.51551 9:2.80139 10:0.940161 11:1.78367 12:2.40554 13:2.31437 
-0 -1 -0.7922659613609498 -0.09567813316167528 1 1 0 1:2.82777 2:2.34803 3:2.63661 4:1.62441 5:2.93653 6:2.79077 7:2.71841 8:2.49148 9:2.82096 10:0.913959 11:1.78616 12:2.36904 13:2.33565 
-1 -0.6783369413193182 -0.6487004482436308 -0 0.2686038905416037 0.1014378628900189 0 1:2.85555 2:2.42716 3:2.63951 4:2.02623 5:2.88428 6:2.56603 7:2.46132 8:2.08135 9:2.08671 10:0.917405 11:1.83853 12:2.6001 13:2.34941 
-1 -0 -0 -0 0 0 0 1:2.80814 2:2.41612 3:2.6792 4:1.9345 5:2.88935 6:2.61844 7:2.58851 8:2.11548 9:2.02255 10:0.89633 11:1.7785 12:2.60956 13:2.38999 
-1 -0 -0 -0 0 0 0 1:2.80987 2:2.38972 3:2.64903 4:2.01577 5:2.90463 6:2.65601 7:2.60223 8:2.12436 9:2.06385 10:0.920604 11:1.7958 12:2.62525 13:2.4063 
-1 -0 -0 -0 0 0 0 1:2.82321 2:2.39893 3:2.70138 4:2.04124 5:2.87622 6:2.65133 7:2.63076 8:2.19934 9:2.09615 10:0.89603 11:1.73825 12:2.60644 13:2.3606 
-1 -0 -0 -0 0 0 0 1:2.80551 2:2.38797 3:2.68269 4:1.83061 5:2.93025 6:2.67412 7:2.61467 8:2.13982 9:2.09221 10:0.890612 11:1.75119 12:2.62421 13:2.35073 
-1 -0 -0 -0 0 0 0 1:2.82522 2:2.42506 3:2.67046 4:1.80959 5:2.94016 6:2.66286 7:2.62937 8:2.18782 9:2.11697 10:0.894153 11:1.71703 12:2.58756 13:2.35287 
-1 -1 -0 -0 0 0 0 1:2.83649 2:2.4507 3:2.67677 4:1.88984 5:2.92595 6:2.67234 7:2.65813 8:2.69571 9:2.20109 10:0.900243 11:1.71324 12:2.5935 13:2.37565 
-0 -1 -0 -1 0 1 1 1:2.82802 2:2.48408 3:2.72422 4:1.67275 5:2.87732 6:2.70105 7:2.62981 8:2.60686 9:2.25969 10:0.927339 11:1.65707 12:2.47061 13:2.37451 
-0 -0 -0 -0 0 0 1 1:2.82847 2:2.41469 3:2.71822 4:1.48094 5:2.87424 6:2.70843 7:2.68445 8:2.33527 9:2.34395 10:0.893991 11:1.65552 12:2.38901 13:2.38488 
-0 -0 -0 -0 1 0 0 1:2.85918 2:2.36272 3:2.62088 4:1.41555 5:2.95625 6:2.70037 7:2.62404 8:2.63806 9:2.22066 10:0.955627 11:1.72023 12:2.46173 13:2.36335 
-0.5110788501720696 -0 -0 -0 0 0 0 1:2.89018 2:2.36342 3:2.78365 4:1.56755 5:3.01464 6:2.50871 7:2.63108 8:2.15828 9:2.14944 10:0.928117 11:1.75544 12:2.52304 13:2.49042 
-0.1934875061042853 -0 -0 -0 0 0 0 1:2.88178 2:2.43056 3:2.77115 4:1.58166 5:2.90878 6:2.52411 7:2.66945 8:2.33252 9:2.18066 10:0.963023 11:1.72892 12:2.53721 13:2.43051 
-0.5512671187199955 -0 -0 -0.5722210348760418 0 0 1 1:2.86071 2:2.42053 3:2.77383 4:1.57073 5:2.77529 6:2.66943 7:2.57633 8:2.19507 9:2.34185 10:0.945337 11:1.72043 12:2.56571 13:2.30805 
-0 -0.6216668317758517 -1 -0 0 0 0 1:2.96194 2:2.35589 3:2.71761 4:1.39081 5:2.79687 6:2.49846 7:2.60054 8:2.43658 9:1.95477 10:0.92643 11:1.78704 12:2.37025 13:2.66547 
-0 -1 -0 -0 0 0 0 1:2.98304 2:2.34504 3:2.74292 4:1.31256 5:2.87147 6:2.47099 7:2.63767 8:2.43818 9:2.27386 10:0.883154 11:1.77378 12:2.32763 13:2.68148 
-0 -1 -0.122483367586253 -0 0 0 0 1:2.97808 2:2.40901 3:2.70687 4:1.34881 5:2.84516 6:2.49524 7:2.56888 8:2.41651 9:1.95431 10:0.920032 11:1.78121 12:2.31556 13:2.68868 
-0 -1 -0 -0 0.7021587508818076 0 0 1:2.93959 2:2.38708 3:2.63443 4:1.32503 5:2.85763 6:2.51134 7:2.48405 8:2.38966 9:1.83173 10:0.869246 11:1.84884 12:2.38105 13:2.64263 
-0 -1 -0 -0 0.7012774627941684 0 0 1:2.95798 2:2.30515 3:2.68546 4:1.36654 5:2.95863 6:2.55596 7:2.6469 8:2.54502 9:2.00689 10:0.926776 11:1.78945 12:2.31545 13:2.71773 
-0 -1 -0 -0 0 0 0 1:2.97542 2:2.34718 3:2.64653 4:1.30837 5:3.00482 6:2.52524 7:2.59542 8:2.47387 9:1.95279 10:0.929663 11:1.80577 12:2.31352 13:2.71114 
-0 -0 -0 -0 -0 0.2769445912045079 0 1:2.96232 2:1.85636 3:1.03619 4:2.83622 5:2.99159 6:2.22497 7:1.7857 8:2.73918 9:2.31075 10:1.70297 11:0.223623 12:1.44303 13:1.49123 
-0 -0 -0 -0.07325256223197255 -0 1 0.3065566831601865 1:2.99904 2:1.8255 3:1.18043 4:2.86418 5:3.04169 6:1.89609 7:1.65126 8:2.5969 9:2.43718 10:1.71368 11:0.219176 12:1.11241 13:1.34531 
-0 -0 -0.96973590688978 -0 -0 0 0 1:2.82112 2:1.67913 3:1.12272 4:2.8007 5:3.06243 6:1.92223 7:2.15099 8:2.45653 9:2.3839 10:1.69447 11:0.373539 12:1.13887 13:2.26723 
-1 -0.6518986905163117 -0 -0 -1 0 0.5465119790612046 1:2.99185 2:1.57023 3:1.60319 4:2.9 5:2.73245 6:2.88719 7:2.32191 8:2.90717 9:2.05918 10:1.7142 11:0.745982 12:1.96461 13:2.48497 
-0.6779750786766876 -0.8693947770386239 -0 -1 -0 1 0 1:3.04952 2:1.64118 3:1.44051 4:2.76272 5:2.10885 6:2.45786 7:2.37185 8:2.83805 9:2.53227 10:1.7135 11:0.88792 12:1.80443 13:2.33771 
-1 -1 -0 -0 -1 0 1 1:3.05142 2:1.60028 3:1.66177 4:2.7953 5:2.67903 6:2.51543 7:2.34986 8:2.74271 9:2.42931 10:1.69185 11:0.812449 12:1.84555 13:2.39532 
-0 -0 -1 -0 -0 0 0 1:2.93027 2:1.5311 3:1.3078 4:2.86613 5:2.39132 6:1.88186 7:2.30829 8:2.37332 9:2.43873 10:1.89098 11:0.645837 12:1.24873 13:2.39968 
-0 -0.04872122779389023 -0 -0 -0.7523223070836617 0 0 1:3.06998 2:1.4866 3:1.23018 4:0.668474 5:2.07094 6:2.62336 7:2.145 8:3.03567 9:2.36083 10:0.83773 11:0.867744 12:1.84452 13:2.13689 
-0 -0 -0 -1 -0 1 1 1:2.98415 2:1.70359 3:1.20425 4:0.641128 5:1.51358 6:2.35755 7:1.83034 8:2.99388 9:2.26013 10:0.572749 11:0.929036 12:1.61654 13:1.69703 
-0 -0 -0 -0.3073905541973134 -0 0 0 1:3.08517 2:1.6391 3:1.16149 4:0.567474 5:1.27183 6:2.61021 7:2.12112 8:3.04149 9:2.24889 10:0.734734 11:0.929426 12:1.80129 13:2.17887 
-0 -0 -0.1155373409406366 -0 -0 0.2658906596808381 0 1:3.03973 2:1.66567 3:1.14434 4:0.663629 5:2.11463 6:1.99717 7:1.74854 8:2.63939 9:2.31852 10:0.562156 11:0.93182 12:1.26139 13:1.5632 
-0 -1 -1 -0 -0.429552410580231 1 1 1:2.92196 2:1.65745 3:1.37926 4:0.670012 5:2.03083 6:2.06425 7:2.13273 8:2.67741 9:2.28429 10:0.547722 11:0.716159 12:1.45115 13:2.02556 
-0 -0 -1 -0 -0 0 0.3404196939865189 1:2.99442 2:1.61976 3:1.21785 4:0.597559 5:1.86056 6:1.96922 7:1.83666 8:2.64417 9:2.28178 10:0.553006 11:0.864393 12:1.28031 13:1.70027 
-0 -0 -1 -0 -0 0 0 1:3.02602 2:1.60783 3:1.2588 4:0.717061 5:1.89787 6:2.1089 7:2.01739 8:2.68798 9:2.30683 10:0.604166 11:0.847227 12:1.42891 13:1.94039 
-0 -0.5552854758617726 -1 -0.02359840212401031 -0 1 0 1:3.02766 2:1.6522 3:1.06475 4:0.831432 5:1.8536 6:1.92822 7:1.93252 8:2.58977 9:2.51818 10:0.452015 11:0.970041 12:1.2486 13:1.68862 
-0.04188288769632081 -0 -1 -1 -0 0 0 1:2.95766 2:1.6011 3:1.05012 4:0.645432 5:0.580009 6:2.07895 7:2.12472 8:2.59473 9:2.5043 10:0.597533 11:0.946066 12:1.41384 13:2.05206 
-0.7719782679292462 -1 -0 -0.2273857674638469 -1 0.9689275951316227 1 1:2.99743 2:1.41973 3:1.78257 4:0.649274 5:2.95054 6:2.22743 7:1.89315 8:2.74002 9:2.30192 10:0.842111 11:1.52065 12:1.46789 13:1.87895 
-0 -0 -0.8276941358987044 -0.2654732428738554 -0 0 0 1:2.8813 2:1.56504 3:1.39335 4:2.70313 5:2.04408 6:2.52873 7:2.39998 8:2.81095 9:2.46665 10:1.70403 11:0.769218 12:1.80904 13:2.41503 
-0 -0 -1 -0 -0 0 0 1:3.01281 2:1.56329 3:0.981014 4:2.78461 5:2.70846 6:1.88788 7:1.96741 8:2.57463 9:2.52991 10:1.66508 11:0.417027 12:1.20501 13:1.74264 
-0 -0 -0.2882223648025293 -0 -0 0 0 1:3.11123 2:1.50872 3:0.993617 4:2.93089 5:2.71658 6:1.79916 7:1.90917 8:2.46398 9:2.41077 10:1.75889 11:0.433137 12:1.12495 13:1.80298 
-0 -0 -1 -0 -0 0 0 1:3.10511 2:1.48238 3:1.01289 4:2.79887 5:2.74435 6:1.7193 7:2.18269 8:2.42282 9:2.28069 10:1.77878 11:0.478493 12:1.11733 13:2.11472 
-0 -0.03321878642125282 -0 -0 -0.02009144722109422 0.6259249661047147 0 1:2.89769 2:1.58697 3:1.36554 4:2.8579 5:2.51147 6:2.5313 7:2.6516 8:2.85809 9:2.91175 10:1.6999 11:0.686336 12:1.97249 13:2.48051 
-0 -0 -0 -0 -0 0 1 1:2.9984 2:1.55704 3:1.54673 4:2.82409 5:2.72334 6:2.17502 7:2.13554 8:2.533 9:2.24349 10:1.80877 11:0.385551 12:1.56492 13:2.16908 
-0 -0 -0.009310296876091133 -0 -0 0 0 1:3.0013 2:1.63309 3:1.28262 4:2.76356 5:1.9478 6:2.36374 7:2.29984 8:2.85265 9:2.23701 10:1.73183 11:0.852384 12:1.74866 13:2.31526 
-0 -0 -1 -0 -0 0 0 1:2.98605 2:1.57911 3:1.26005 4:2.69032 5:2.11527 6:2.13219 7:2.14717 8:2.73833 9:2.30978 10:1.78538 11:0.757728 12:1.51269 13:2.16348 
-0 -0 -1 -0 -0 -0.5809177396783555 0 1:2.36566 2:2.91382 3:1.38196 4:2.71096 5:2.01557 6:2.17579 7:2.27277 8:2.80521 9:2.6774 10:0.676767 11:1.12609 12:1.39435 13:1.58095 
-0 -0 -1 -1 -0 -0 0 1:2.78277 2:2.95438 3:2.07383 4:2.5433 5:1.54011 6:2.21725 7:2.33837 8:2.87114 9:2.68477 10:0.730087 11:0.798786 12:1.43339 13:1.56851 
-0 -0 -1 -1 -0 -0.01258291184545329 0 1:2.95195 2:2.96643 3:2.09916 4:2.49174 5:1.58994 6:2.23694 7:2.34776 8:2.85255 9:2.70091 10:0.722912 11:0.675949 12:1.44382 13:1.58541 
-0 -0 -0.569564208146647 -1 -0 -0 0 1:2.83681 2:2.95422 3:2.01297 4:2.47696 5:1.67889 6:2.22142 7:2.32132 8:2.85611 9:2.68992 10:0.70885 11:0.740343 12:1.44018 13:1.55889 
-0 -0 -0 -0 -0 -0.02929817825711274 0 1:2.91157 2:2.92445 3:1.40658 4:2.47302 5:2.20038 6:2.20336 7:2.38139 8:2.8595 9:2.66131 10:0.692036 11:1.03026 12:1.39154 13:1.6457 
-0 -0 -0 -0 -0 -1 0 1:2.95619 2:2.91296 3:1.46484 4:2.46899 5:2.35723 6:2.22176 7:2.32232 8:2.83308 9:2.67116 10:0.668645 11:0.98177 12:1.41841 13:1.59292 
-0 -0 -0.6126375486871841 -0 -0 -0.3354763553375185 0 1:2.82841 2:2.87427 3:1.52044 4:2.20374 5:2.2798 6:2.19949 7:2.38581 8:2.85181 9:2.63797 10:0.63438 11:0.961428 12:1.38674 13:1.64605 
-0 -0 -1 -0.739936590323906 -0 -1 0 1:2.92022 2:2.9012 3:1.37154 4:1.08964 5:2.17557 6:2.21872 7:2.38219 8:2.8432 9:2.68086 10:0.651893 11:1.06883 12:1.41091 13:1.64148 
-0 -0 -0 -0 -0 -1 0 1:2.92248 2:2.92874 3:1.36427 4:2.69527 5:2.2501 6:2.20554 7:2.39537 8:2.85102 9:2.67108 10:0.671687 11:1.01971 12:1.3899 13:1.66051 
-0 -0 -0.7068284265443192 -0 -0 -0 0 1:2.3273 2:2.9162 3:1.37497 4:2.63081 5:2.28625 6:2.19353 7:2.38828 8:2.84066 9:2.68437 10:0.655036 11:1.03199 12:1.38393 13:1.65106 
-0 -0 -0.1086973923889749 -0 -0 -0 0 1:2.4544 2:2.91166 3:1.39451 4:1.9214 5:2.34881 6:2.19222 7:2.38405 8:2.84289 9:2.68488 10:0.649884 11:1.01194 12:1.38351 13:1.64619 
-0 -1 -0 -0 -1 -1 0.7181739276958535 1:2.789 2:2.79809 3:2.13219 4:1.10774 5:2.45785 6:2.25531 7:2.25513 8:2.81416 9:2.66607 10:0.528641 11:1.29933 12:1.46716 13:1.4841 
-0 -1 -0.4684936254020728 -0 -0 -1 1 1:2.96917 2:2.77969 3:2.1708 4:1.07755 5:2.42766 6:2.24753 7:2.27289 8:2.81467 9:2.67243 10:0.521774 11:1.26591 12:1.45491 13:1.4947 
-0 -0.7234628419524223 -0 -0 -0 -0 0.2891375159130298 1:2.88829 2:2.8287 3:2.19712 4:1.255 5:2.41262 6:2.24364 7:2.25416 8:2.82786 9:2.67302 10:0.523823 11:1.22039 12:1.44878 13:1.49769 
-0 -0 -0 -0 -0 -0 1 1:2.88942 2:2.82172 3:2.19998 4:1.42368 5:2.39357 6:2.28964 7:2.22445 8:2.79589 9:2.67929 10:0.563639 11:1.226 12:1.49683 13:1.46168 
-0 -0 -0 -0.4170380408246794 -0 -0.1794126270032433 1 1:2.88684 2:2.76984 3:2.23112 4:1.34765 5:2.35775 6:2.27155 7:2.23435 8:2.81593 9:2.67438 10:0.532347 11:1.23427 12:1.47632 13:1.46616 
-0 -1 -0 -0 -1 -0 0 1:2.97338 2:2.81156 3:2.19601 4:1.40918 5:2.53695 6:2.26653 7:2.2431 8:2.83605 9:2.66574 10:0.538292 11:1.32464 12:1.46823 13:1.48762 
-0 -1 -0 -0 -1 -0 0 1:2.95945 2:2.83137 3:2.148 4:1.45107 5:2.57536 6:2.26704 7:2.25001 8:2.78821 9:2.68407 10:0.5422 11:1.37327 12:1.46302 13:1.5002 
-0 -0 -0 -1 -0 -0 1 1:2.95365 2:2.86558 3:2.22621 4:1.4302 5:2.308 6:2.25786 7:2.26561 8:2.81516 9:2.65332 10:0.562697 11:1.15152 12:1.46848 13:1.50569 
-0 -0 -0 -0 -0 -1 0 1:2.8134 2:2.88233 3:1.40128 4:1.19409 5:2.23642 6:2.31074 7:2.22593 8:2.82497 9:2.66459 10:0.610739 11:1.06374 12:1.50628 13:1.4746 
-0 -1 -0 -0 -0 -0 0 1:2.86227 2:2.89395 3:2.10842 4:2.17424 5:2.40938 6:2.27099 7:2.217 8:2.8137 9:2.69732 10:0.669364 11:1.45437 12:1.54182 13:1.43655 
-1 -1 -0 -0 -1 -0 0 1:2.92081 2:2.89609 3:2.18285 4:2.18878 5:2.46894 6:2.2981 7:2.2013 8:2.60335 9:2.70116 10:0.671418 11:1.409 12:1.55163 13:1.42883 
-0 -0 -0 -1 -0 -0 0.6959871979595976 1:2.84486 2:2.82907 3:2.38156 4:2.37377 5:2.09129 6:2.34376 7:2.20036 8:2.90513 9:2.66832 10:0.555295 11:1.19845 12:1.58483 13:1.40533 
-0.6165289375688432 -0 -0 -0 -0 -0 0 1:2.82309 2:3.07129 3:2.1304 4:2.51492 5:2.20681 6:2.3097 7:2.22383 8:2.94075 9:2.62832 10:0.843236 11:1.23871 12:1.58597 13:1.39909 
-0 -0 -0 -1 -0 -0 0 1:2.79258 2:3.04386 3:2.37276 4:2.19069 5:2.17121 6:2.34898 7:2.20747 8:2.88674 9:2.64024 10:0.814238 11:1.2554 12:1.57761 13:1.40947 
-0.7756211402576516 -0 -0 -0 -0 -0 0 1:3.09059 2:2.98216 3:2.41957 4:2.29676 5:2.19364 6:2.35715 7:2.20298 8:2.90836 9:2.63536 10:0.795074 11:1.29543 12:1.58515 13:1.39897 
-0 -0 -0 -0 -0 -0 1 1:2.88282 2:2.87773 3:2.37112 4:2.28257 5:2.16878 6:2.32057 7:2.22664 8:2.92321 9:2.60865 10:0.647922 11:1.23299 12:1.56248 13:1.42502 
-0 -1 -0 -0 -0 -0 0 1:2.74338 2:2.89128 3:2.29796 4:2.17294 5:2.30606 6:2.27466 7:2.25916 8:2.7564 9:2.62448 10:0.646133 11:1.38389 12:1.50602 13:1.468 
-0 -0 -0 -0.9911635628116048 -0 -0 0 1:2.811 2:2.95233 3:2.30871 4:2.06099 5:2.20169 6:2.3436 7:2.21986 8:2.92288 9:2.67035 10:0.693706 11:1.22283 12:1.59329 13:1.40841 
-0 -0 -0 -0.02366223398564856 -0 -0 0 1:2.83715 2:2.9556 3:2.32173 4:2.15692 5:2.17056 6:2.34559 7:2.21463 8:2.849 9:2.67546 10:0.696758 11:1.17145 12:1.5919 13:1.40142 
-0 -0 -0 -1 -0 -0 1 1:2.96237 2:2.9057 3:2.4646 4:2.12097 5:2.15947 6:2.32622 7:2.21652 8:2.93203 9:2.66636 10:0.676508 11:1.16464 12:1.57163 13:1.40583 
-0 -0 -0 -0 -0 -0 1 1:2.86513 2:2.8847 3:2.44402 4:2.31651 5:2.17722 6:2.33368 7:2.18195 8:2.86156 9:2.65634 10:0.641467 11:1.20202 12:1.59242 13:1.3982 
-0 -0 -0 -1 -0 -0 0 1:2.80439 2:2.88425 3:2.34943 4:2.23662 5:2.14645 6:2.3213 7:2.22227 8:2.93208 9:2.65858 10:0.647139 11:1.18639 12:1.58686 13:1.41522 
-1 -0 -0 -0 -0.02789240465468695 -0 1 1:2.99964 2:2.89599 3:2.415 4:2.28185 5:2.18848 6:2.337 7:2.20901 8:2.63411 9:2.66424 10:0.651097 11:1.23128 12:1.58045 13:1.4222 
-0 -0 -0 -0.1264286181968086 -0 -0 0 1:2.85852 2:2.80001 3:2.22516 4:2.07022 5:2.1527 6:2.2858 7:2.26568 8:2.97805 9:2.69062 10:0.58365 11:1.11763 12:1.53822 13:1.46848 
-0 -1 -0 -0 -0 -0 0 1:2.84336 2:2.82602 3:2.12349 4:2.31719 5:2.25449 6:2.31692 7:2.2464 8:2.85727 9:2.65911 10:0.587676 11:1.56906 12:1.55366 13:1.45735 
-0 -1 -0 -0 -0 -0 0 1:2.92252 2:2.87218 3:2.19783 4:2.27984 5:2.22391 6:2.3177 7:2.26425 8:2.97984 9:2.66123 10:0.58721 11:1.5444 12:1.54773 13:1.46307 
-0 -0.6313875135558893 -0 -0 -0 -0 0 1:3.01349 2:2.88427 3:2.02014 4:2.22819 5:2.2666 6:2.31934 7:2.25406 8:2.8333 9:2.68861 10:0.614071 11:1.54239 12:1.57867 13:1.44047 
-0 -1 -0 -0 -0 -0 0 1:2.87768 2:2.86948 3:2.16662 4:2.34166 5:2.20838 6:2.28409 7:2.27641 8:2.87867 9:2.6799 10:0.597339 11:1.50487 12:1.54585 13:1.47217 
-0 -1 -0 -0 -0 -0 0 1:2.92491 2:2.83712 3:2.21548 4:2.36176 5:2.20126 6:2.33373 7:2.26658 8:2.87563 9:2.67825 10:0.591469 11:1.60402 12:1.5783 13:1.44057 
-0 -1 -0 -0 -1 -0 0 1:2.80632 2:2.82819 3:2.14365 4:2.16911 5:2.30609 6:2.30313 7:2.23571 8:2.88299 9:2.66479 10:0.590905 11:1.70637 12:1.55784 13:1.43454 
-0 -1 -0 -0 -0 -0 0 1:2.86975 2:2.8514 3:2.13938 4:2.35437 5:2.27613 6:2.32342 7:2.21868 8:2.87001 9:2.66784 10:0.583643 11:1.6083 12:1.56869 13:1.42902 
-0 -1 -0 -0 -0 -0 0 1:2.88002 2:2.83783 3:2.24022 4:2.10461 5:2.29703 6:2.30442 7:2.25662 8:2.91143 9:2.67008 10:0.588689 11:1.47695 12:1.54745 13:1.48409 
-0 -1 -0 -1 -1 -0 -1 1:2.92081 2:2.43806 3:3.03757 4:1.35045 5:2.31594 6:2.30566 7:2.129 8:2.61724 9:2.15839 10:0.516481 11:0.946378 12:1.64685 13:1.42368 
-0 -0 -0 -0 -0.4252100531152962 -0 -1 1:2.89286 2:2.31974 3:3.03705 4:1.39418 5:2.29763 6:2.41272 7:2.08209 8:2.62603 9:2.16419 10:0.548364 11:0.895262 12:1.76318 13:1.37508 
-0 -0 -0 -0 -0 -0 -1 1:2.88817 2:2.37272 3:3.00691 4:1.39458 5:2.29099 6:2.39692 7:1.96851 8:2.6097 9:2.0597 10:0.549963 11:0.931097 12:1.75703 13:1.26551 
-0 -0.5493021461572297 -0 -0 -1 -0 -0 1:2.83943 2:2.24901 3:3.0789 4:1.6803 5:2.4568 6:2.44379 7:2.03919 8:2.63518 9:2.28833 10:0.965585 11:0.876167 12:1.80601 13:1.34578 
-0 -0 -0 -1 -0 -0 -0 1:2.80273 2:2.15618 3:2.96323 4:1.9432 5:1.90412 6:2.43694 7:2.04901 8:2.5233 9:2.15578 10:1.16232 11:0.647598 12:1.81077 13:1.33335 
-0 -0 -0 -0 -0.9076912407715703 -0 -0 1:2.50861 2:2.21065 3:3.0833 4:1.76909 5:2.56238 6:2.45602 7:2.0088 8:2.52339 9:2.23855 10:0.968087 11:0.801863 12:1.84017 13:1.32081 
-0.4175011469137307 -1 -0 -0.2093186344546867 -1 -0.3786367602544621 -1 1:2.71271 2:2.23318 3:2.84759 4:1.6657 5:2.19479 6:2.52407 7:2.02928 8:2.56203 9:2.12968 10:0.987702 11:1.0401 12:1.89343 13:1.3061 
-0 -0 -0 -0 -0 -0 -1 1:2.95374 2:2.24726 3:2.98067 4:1.64372 5:2.21925 6:2.38636 7:2.07533 8:2.62109 9:2.05885 10:0.937706 11:0.962658 12:1.71984 13:1.37101 
-0 -1 -0 -1 -0 -0 -1 1:2.81735 2:2.29907 3:2.98548 4:1.64181 5:2.19247 6:2.36989 7:2.09607 8:2.61547 9:2.12771 10:0.921312 11:0.958949 12:1.69077 13:1.38131 
-0 -1 -0 -0 -0 -0 -1 1:2.88806 2:2.31605 3:2.98421 4:1.63082 5:2.31663 6:2.32996 7:2.07929 8:2.57855 9:2.09133 10:0.929627 11:0.953959 12:1.66066 13:1.38055 
-0 -1 -0 -0 -0.1531968925813341 -0 -0.916337184714794 1:2.62461 2:2.17316 3:3.01604 4:1.89076 5:2.27251 6:2.39257 7:2.07684 8:2.55534 9:2.25661 10:1.14495 11:0.946602 12:1.74221 13:1.36953 
-0 -0 -0 -0 -0 -0 -1 1:2.86156 2:2.30141 3:3.03603 4:1.64066 5:2.39616 6:2.40619 7:2.0646 8:2.57891 9:2.17732 10:0.910133 11:0.878482 12:1.74506 13:1.3456 
-0 -0.2099465885343715 -0 -0 -0 -0 -0 1:2.87323 2:2.23055 3:3.00135 4:1.79358 5:2.19129 6:2.32175 7:2.09784 8:2.53631 9:2.10712 10:1.17725 11:0.969054 12:1.66596 13:1.36309 
-0 -0 -0 -0 -0 -0 -0.786961456853687 1:2.97479 2:2.2787 3:3.02765 4:1.74202 5:2.2061 6:2.35223 7:2.0866 8:2.5332 9:2.25796 10:1.08507 11:0.749065 12:1.7071 13:1.35171 
-0 -0 -0 -0.4989021368848424 -0 -0 -0 1:2.92681 2:2.51037 3:3.09344 4:0.774161 5:1.94851 6:2.28869 7:1.93701 8:2.54256 9:1.84488 10:0.663564 11:0.778819 12:1.77821 13:1.34742 
-0 -0 -1 -0.3677800430477888 -0 -0 -0 1:2.88121 2:1.79395 3:3.07992 4:1.60424 5:1.83946 6:2.26943 7:2.32965 8:2.72325 9:1.93511 10:0.848418 11:0.895606 12:1.44244 13:1.68504 
-0 -0 -1 -0 -0.02851596810858231 -0 -0 1:2.90494 2:1.5497 3:2.96856 4:1.37043 5:2.04295 6:2.2445 7:2.35899 8:2.66462 9:1.91664 10:0.607343 11:0.770667 12:1.41079 13:1.76199 
-0 -0 -0.498623887598662 -0 -0 -0 -0 1:2.88542 2:1.53054 3:2.87801 4:1.35031 5:2.11191 6:2.25647 7:2.29977 8:2.75569 9:1.88001 10:0.583404 11:0.662072 12:1.38896 13:1.65996 
-0 -0 -0 -0 -0 -0.2899617453885134 -0 1:3.00134 2:1.50231 3:2.87463 4:1.32486 5:2.14576 6:2.29217 7:2.30752 8:2.76088 9:1.91505 10:0.586896 11:0.663614 12:1.44409 13:1.66025 
-0 -0 -0 -0 -0 -1 -0 1:2.89779 2:1.54988 3:2.86606 4:1.36887 5:2.16178 6:2.29672 7:2.36774 8:2.78196 9:1.92964 10:0.611252 11:0.661093 12:1.44768 13:1.70958 
-0 -0 -0 -0 -0 -1 -0 1:2.95585 2:1.58481 3:2.86022 4:1.40182 5:2.15673 6:2.27486 7:2.38448 8:2.71541 9:1.93766 10:0.647892 11:0.67299 12:1.42417 13:1.73148 
-0 -0 -0.8527629063885962 -0 -0 -1 -0 1:3.00116 2:1.57244 3:2.85298 4:1.39461 5:2.15178 6:2.23585 7:2.33837 8:2.76714 9:1.96524 10:0.663996 11:0.652438 12:1.39218 13:1.70237 
-0 -0 -1 -0 -0 -0.5318503743725898 -0 1:2.96987 2:1.65809 3:2.86191 4:1.46112 5:2.08233 6:2.26482 7:2.35374 8:2.50905 9:1.94719 10:0.722577 11:0.662495 12:1.46143 13:1.73533 
-0 -0.1516224251694339 -0 -0 -0 -0 -0 1:3.03098 2:1.5144 3:2.92494 4:1.341 5:2.09291 6:2.24343 7:2.35092 8:2.76065 9:1.9778 10:0.605301 11:0.737625 12:1.39232 13:1.74712 
-0 -0 -0 -0.5770245312079432 -0 -0 -0 1:3.04194 2:1.69549 3:3.01163 4:1.63387 5:1.63561 6:2.4521 7:2.05484 8:2.57495 9:1.97994 10:0.406588 11:1.01516 12:1.85994 13:1.35498 
-0 -0 -0 -0.01950740030973525 -0 -0 -0 1:2.76029 2:2.16482 3:2.98054 4:2.37058 5:1.79908 6:2.4036 7:2.00289 8:2.70873 9:1.74494 10:1.28938 11:0.851536 12:1.83918 13:1.34398 
-0 -0 -0.7499651786768885 -0 -0 -0 -0 1:2.92798 2:2.15284 3:2.96342 4:2.40843 5:1.93387 6:2.30937 7:1.97177 8:2.62298 9:1.72342 10:1.34194 11:0.882813 12:1.73481 13:1.33208 
-0 -0 -1 -1 -0 -0 -0 1:2.90493 2:2.08435 3:2.94941 4:2.44293 5:1.40856 6:2.43728 7:1.80188 8:2.64142 9:1.82377 10:1.36383 11:0.564212 12:1.89383 13:1.16451 
-1 -0 -0 -0 -0 -0 -0 1:2.92386 2:2.17161 3:3.055 4:2.41037 5:2.50388 6:2.39781 7:1.96596 8:2.61004 9:1.76244 10:1.32324 11:0.684017 12:1.85929 13:1.29303 
-0 -0 -0 -0 -0 -0.8327164454282394 -0 1:2.89574 2:2.19496 3:2.92145 4:2.3954 5:2.69256 6:2.38278 7:1.93057 8:2.69393 9:1.83825 10:1.32362 11:0.658298 12:1.78486 13:1.28212 
-0 -0 -0 -0 -0 -1 -0 1:2.95821 2:2.18567 3:2.94688 4:2.42739 5:2.6543 6:2.30949 7:1.96398 8:2.58916 9:2.03882 10:1.30304 11:0.639586 12:1.73903 13:1.28678 
-0.7284110128017717 -0 -0 -0 -0 -0 -0 1:2.84219 2:2.20597 3:2.99413 4:2.41954 5:2.41787 6:2.33094 7:1.965 8:2.58742 9:1.90248 10:1.3096 11:0.77867 12:1.71331 13:1.30765 
-0.8045777152815266 -0 -0 -0 -0 -0 -0 1:2.93675 2:2.21773 3:2.97264 4:2.39696 5:2.34139 6:2.3075 7:1.93851 8:2.56519 9:1.83035 10:1.28993 11:0.830288 12:1.71936 13:1.29529 
-1 -0 -0 -0 -0 -0 -0 1:2.94951 2:2.22059 3:2.94885 4:2.38429 5:2.51113 6:2.3167 7:1.98166 8:2.57314 9:1.95324 10:1.32403 11:0.768148 12:1.70187 13:1.32871 
-0 -0 -0 -0 -0.5334065821495508 -0.04534591429519495 -0 1:2.93941 2:2.08989 3:2.96322 4:1.17847 5:2.57569 6:2.50989 7:2.00361 8:2.90563 9:1.97926 10:1.24265 11:0.721015 12:1.87905 13:1.33205 
-0 -0 -0 -0 -0 -0.1149771164689106 -0 1:2.92611 2:2.19243 3:2.85331 4:1.19177 5:2.20792 6:2.47865 7:1.96311 8:2.90371 9:1.83154 10:1.20409 11:0.67393 12:1.85952 13:1.25304 
